svm_type c_svc
kernel_type rbf
gamma 0.044194
nr_class 2
total_sv 155
rho 0.807792
label 0 1
probA -2.47052
probB 0.353803
nr_sv 81 74
SV
0.6327196616127232 1:-0.54921392 2:-0.80857615 3:-1.3234241 4:-0.84280891 5:-0.81022123 6:-2.5862548 7:-2.1660196 8:-2.8076074 9:-1.7513798 10:-2.1765825 11:0.23972912 12:0.04266158 13:-0.59530123 14:-0.20727856 15:-0.23699803 
1.934332368497076 1:-2.5116826 2:-2.1140011 3:-2.7478205 4:-1.7382063 5:-2.1561702 6:0.23570128 7:0.035904514 8:-0.63920952 9:-0.22792514 10:-0.23205681 11:-2.0792972 12:-1.870007 13:-1.9903087 14:-1.4285051 15:-1.0409248 
2.828427 1:0.25590142 2:0.056724614 3:-0.61122591 4:-0.20323932 5:-0.22659502 6:-2.2270968 7:-1.9672231 8:-2.0848081 9:-1.4974707 10:-1.039056 11:0.23972912 12:0.018532035 13:0.10220252 14:-0.45152387 15:-0.44203975 
2.704989422735873 1:0.155262 2:-0.10105576 3:-0.61122591 4:-0.45906716 5:-0.38979801 6:0.18439298 7:-0.066863176 8:0.083589763 9:-0.73574336 10:0.33111424 11:-0.91978405 12:-1.0753407 13:-0.59530123 14:-0.81789185 15:-0.77376396 
2.828427 1:0.45718025 2:0.17962722 3:0.10097228 4:-0.33115324 5:1.0983247 6:0.54355103 7:0.36273946 8:-0.63920952 9:-0.22792514 10:-1.0259464 11:0.8194857 12:0.65266988 13:0.11673385 14:-0.082611676 15:0.16502754 
0.2960419572222519 1:0.55781967 2:0.37892874 3:-0.61122591 4:-0.20323932 5:-1.0143808 6:0.85140079 7:0.67476295 8:0.098648081 9:-0.0983257 10:0.17150519 11:0.14310302 12:-0.094072508 13:-0.59530123 14:-0.45152387 15:-0.23367888 
2.828427 1:0.85973792 2:0.68653126 3:0.11580974 4:-0.072660525 5:0.17386419 6:0.13308469 7:-0.10729637 8:-0.63920952 9:-0.48183425 10:-0.22872497 11:0.19141607 12:0.10218112 13:0.10220252 14:0.28121208 15:0.51832727 
2.828427 1:0.20558171 2:0.11817592 3:0.10097228 4:0.30841636 5:0.5257874 6:0.85140079 7:0.72512894 8:-0.63920952 9:0.28253797 10:-0.87433602 11:0.77117265 12:0.65072611 13:0.10220252 14:-0.085155898 15:-0.033374738 
1.254755514928602 1:0.85973792 2:0.73618363 3:-0.61122591 4:0.31108123 5:-0.86393605 6:0.80009249 7:0.67272725 8:0.083589763 9:-0.10097059 10:-0.027655326 11:0.19141607 12:0.23730658 13:0.10220252 14:2.6015426 15:0.2238443 
0.1696768896236004 1:0.30622113 2:0.10654999 3:-0.61122591 4:-0.45906716 5:-0.95111765 6:0.64616762 7:0.38969492 8:-0.63920952 9:-0.3548797 10:-0.80675973 11:0.33635522 12:0.36234454 13:0.11673385 14:1.632194 15:-0.73647018 
2.828427 1:0.65845909 2:0.40550227 3:-0.61122591 4:-0.33115324 5:-0.79687933 6:0.33831786 7:0.37070677 8:0.098648081 9:1.6843278 10:-0.7334378 11:0.67454656 12:0.59442384 13:0.10220252 14:-0.32940121 15:0.15592298 
2.828427 1:0.35654084 2:0.38678315 3:0.11580974 4:1.7234641 5:-0.72412113 6:0.69747591 7:0.61376218 8:0.083589763 9:-0.3548797 10:0.16236584 11:0.67454656 12:0.51325473 13:-0.59530123 14:0.53054584 15:-1.6494851 
0.3725718023677307 1:0.7087788 2:0.62639479 3:0.10097228 4:-0.33115324 5:0.1647951 6:0.69747591 7:0.52875421 8:-0.63920952 9:0.53909196 10:-1.649942 11:0.19141607 12:-0.052247963 13:-0.59530123 14:-0.32940121 15:-0.094586394 
2.828427 1:0.7087788 2:0.54259127 3:-0.61122591 4:0.56957395 5:-1.6335788 6:0.18439298 7:-0.063493743 8:-0.63920952 9:-0.3548797 10:-0.089100916 11:0.23972912 12:-0.015249328 13:0.10220252 14:-0.57364653 15:0.68970064 
2.828427 1:0.20558171 2:-0.0412653 3:-0.61122591 4:-0.33115324 5:-0.084738245 6:0.23570128 7:-0.02474527 8:0.083589763 9:-0.60878881 10:0.69818344 11:0.33635522 12:0.28234839 13:0.10220252 14:0.64758005 15:-0.39257949 
2.828427 1:0.25590142 2:-0.0030658422 3:0.10097228 4:-0.58698108 5:0.69649307 6:0.33831786 7:0.28692723 8:0.083589763 9:0.66075674 10:-0.38823286 11:0.48129436 12:0.32739021 13:0.10220252 14:-0.45152387 15:0.23646438 
2.828427 1:0.35654084 2:0.30419067 3:0.10097228 4:0.69215812 5:-0.38157031 6:0.49224274 7:0.33409929 8:0.083589763 9:-0.48183425 10:0.24321504 11:0.67454656 12:0.58326393 13:0.10220252 14:0.16163364 15:-0.25221603 
2.828427 1:0.50749996 2:0.35069436 3:0.10097228 4:-0.45906716 5:0.24502269 6:0.69747591 7:0.60207446 8:0.083589763 9:0.15558341 10:-0.24733297 11:0.62623351 12:0.46107459 13:0.10220252 14:0.16163364 15:0.13532537 
1.430501867253366 1:-0.54921392 2:-0.68567355 3:0.10097228 4:-0.58698108 5:1.7061667 6:-0.17476506 7:-0.2072562 8:0.098648081 9:-0.095680813 10:0.34552493 11:-1.7894189 12:-1.5949302 13:-1.292805 14:-0.45152387 15:-0.44097027 
1.780511601564509 1:0.155262 2:0.10156746 3:0.10097228 4:-0.075325398 5:0.49840874 6:-0.27738165 7:-0.36337323 8:0.083589763 9:-0.60878881 10:1.1674493 11:-0.871471 12:-0.97882249 13:-1.292805 14:-0.81789185 15:-0.98490189 
2.434087086564694 1:-0.3982548 2:-0.61259632 3:0.10097228 4:-0.84280891 5:0.49557065 6:-2.0218636 7:-1.7936973 8:-1.3620088 9:-1.3705161 10:-1.0472138 11:-0.0018361254 12:-0.21140242 13:-0.59530123 14:-0.44897965 15:-0.99486176 
1.945046727132616 1:-1.9581658 2:-1.7469541 3:-1.3234241 4:-1.3544646 5:-1.0354846 6:-0.020840185 7:-0.23017536 8:-0.63920952 9:-0.47918937 10:-0.99281688 11:-1.3062884 12:-1.2812461 13:-0.59530123 14:-1.0621372 15:0.17384124 
2.828427 1:-1.2536898 2:-1.3317426 3:-1.3234241 4:-1.3544646 5:-0.55805297 6:0.18439298 7:-0.023060554 8:0.083589763 9:-0.48183425 10:-0.33888261 11:-2.5624277 12:-2.100042 13:-1.9903087 14:-1.5506278 15:-1.4733121 
2.828427 1:0.50749996 2:0.26433036 3:0.10097228 4:-0.58698108 5:0.77685709 6:0.23570128 7:0.061175258 8:-0.63920952 9:0.15293852 10:-0.62499513 11:0.57792046 12:0.41908248 13:0.10220252 14:-0.45152387 15:-0.91702502 
1.222830332441454 1:0.25590142 2:0.081637304 3:-0.61122591 4:0.18050244 5:-0.61651223 6:0.59485932 7:0.43012811 8:0.083589763 9:-0.48183425 10:-0.91468267 11:0.57792046 12:0.45768975 13:-0.59530123 14:0.036966761 15:-0.69025074 
1.865001297909293 1:0.7087788 2:0.60978633 3:-0.61122591 4:0.5642442 5:-0.93029528 6:0.69747591 7:0.80750455 8:0.083589763 9:2.5650751 10:-1.0990096 11:0.43298131 12:0.18583021 13:0.10220252 14:-0.45152387 15:-0.35565618 
2.828427 1:0.7087788 2:0.81739208 3:0.10097228 4:2.6108669 5:-1.0868822 6:0.44093445 7:0.18584426 8:0.083589763 9:-0.48183425 10:-0.35116844 11:0.67454656 12:0.53168702 13:0.10220252 14:-0.085155898 15:0.29561619 
1.001843558823792 1:0.45718025 2:0.20453991 3:0.10097228 4:-0.45906716 5:-0.34479085 6:0.69747591 7:0.54805825 8:0.083589763 9:-0.10097059 10:0.30259292 11:0.43298131 12:0.42390839 13:-0.59530123 14:3.0900332 15:-1.0200771 
0.3898528021459768 1:0.7087788 2:0.5616218 3:0.10097228 4:-0.075325398 5:0.30394404 6:0.44093445 7:0.43518226 8:-0.63920952 9:3.1998478 10:-1.0181285 11:0.7228596 12:0.82124156 13:0.10220252 14:3.4564012 15:-1.4804874 
0.3088732041544011 1:0.75909851 2:0.86057408 3:0.10097228 4:3.6341783 5:-1.4652395 6:-0.43130652 7:-0.32630948 8:-0.63920952 9:2.9459387 10:-0.57933242 11:0.7228596 12:0.55903384 13:0.10220252 14:-0.45152387 15:-0.57530166 
2.828427 1:-0.3982548 2:-0.30035728 3:-0.61122591 4:2.9946087 5:-0.5712006 6:0.7487842 7:0.57669842 8:0.083589763 9:-0.48183425 10:-0.57165334 11:0.77117265 12:0.57190293 13:0.79970628 14:-0.32940121 15:1.1100125 
2.828427 1:0.75909851 2:0.58985618 3:0.10097228 4:-0.45906716 5:-0.56358055 6:0.80009249 7:0.59017615 8:0.80638905 9:-0.3548797 10:1.1201016 11:0.77117265 12:0.63463975 13:-0.59530123 14:1.5024387 15:-0.30671658 
2.828427 1:0.80941822 2:0.60314295 3:0.81317046 4:-0.33115324 5:1.1151673 6:0.80009249 7:0.65588009 8:-0.63920952 9:1.5494386 10:-0.30204181 11:0.57792046 12:0.40943066 13:-0.59530123 14:-0.20727856 15:-0.25672025 
2.828427 1:0.65845909 2:0.48024034 3:-0.61122591 4:0.18050244 5:-0.94278831 6:0.18439298 7:0.025796217 8:0.083589763 9:-0.22792514 10:-0.32101763 11:0.62623351 12:0.5172093 13:0.10220252 14:0.40333474 15:0.25080979 
2.828427 1:0.20558171 2:0.046759538 3:0.10097228 4:-0.20323932 5:-0.31487186 6:0.64616762 7:0.5328958 8:0.083589763 9:0.40684763 10:0.25761527 11:0.7228596 12:0.63463975 13:0.10220252 14:0.036966761 15:0.29834217 
2.828427 1:0.65845909 2:0.54667418 3:0.10097228 4:0.43633028 5:0.25931221 6:0.7487842 7:0.65588009 8:0.083589763 9:0.025983969 10:0.30532931 11:-0.871471 12:-1.0656218 13:-1.292805 14:0.65012427 15:-0.75686296 
2.828427 1:0.75909851 2:0.66791594 3:0.10097228 4:0.052588521 5:0.3066594 6:-0.94438945 7:-1.1247948 8:-1.3620088 9:0.66340163 10:-0.75390852 11:0.48129436 12:0.16491794 13:0.10220252 14:-0.45152387 15:0.51391178 
2.828427 1:-0.90145189 2:-1.0875291 3:-1.3234241 4:0.69482299 5:-0.74443446 6:0.49224274 7:0.16394295 8:0.083589763 9:-0.48183425 10:0.52172276 11:-0.48496661 12:-0.53805613 13:0.10220252 14:-0.69576919 15:0.8043415 
2.828427 1:0.50749996 2:0.18294891 3:0.10097228 4:-0.45906716 5:0.52138911 6:-0.53392311 7:-0.57227805 8:0.083589763 9:-0.73574336 10:0.81326243 11:-0.14677527 12:-0.34019387 13:0.10220252 14:-0.32940121 15:0.78962334 
2.828427 1:-1.3543293 2:-1.338386 3:-1.3234241 4:-1.2265507 5:0.34190078 6:0.64616762 7:0.49583205 8:0.083589763 9:-0.3548797 10:0.27999503 11:0.9161118 12:0.8405452 13:0.10220252 14:0.64758005 15:-0.030851904 
2.828427 1:0.65845909 2:0.51013557 3:0.10097228 4:-0.33115324 5:0.2815199 6:0.95401737 7:0.87152377 8:0.083589763 9:0.66075674 10:-0.025122851 11:0.43298131 12:0.29039157 13:0.10220252 14:-0.085155898 15:-0.29198476 
2.828427 1:0.96037734 2:0.88050423 3:0.10097228 4:0.69215812 5:-0.021252076 6:0.44093445 7:0.29535081 8:0.083589763 9:-0.10097059 10:-0.28725368 11:0.67454656 12:0.57833748 13:0.10220252 14:0.28121208 15:0.30132996 
2.828427 1:0.45718025 2:0.3124949 3:0.10097228 4:-0.075325398 5:-0.28136751 6:0.69747591 7:0.59691502 8:0.083589763 9:0.27989308 10:0.30832852 11:0.57792046 12:0.43516884 13:-0.59530123 14:-0.20727856 15:-1.1887684 
2.828427 1:0.7087788 2:0.60978633 3:0.10097228 4:0.30841636 5:0.30963555 6:0.59485932 7:0.44697527 8:-0.63920952 9:-0.22792514 10:-1.1874646 11:0.48129436 12:0.37082339 13:0.10220252 14:0.28121208 15:0.21115021 
2.828427 1:0.60813938 2:0.46197104 3:-0.61122591 4:-0.20323932 5:-1.1746571 6:0.49224274 7:0.37958663 8:0.083589763 9:0.27989308 10:0.21780413 11:0.77117265 12:0.64398995 13:0.10220252 14:-0.32685699 15:0.18026192 
2.828427 1:0.40686054 2:0.16135791 3:-0.61122591 4:-0.33115324 5:-0.58882488 6:0.49224274 7:0.43012811 8:0.083589763 9:0.53380219 10:-0.91468267 11:0.77117265 12:0.67485566 13:0.10220252 14:-0.20727856 15:-0.46165047 
2.828427 1:0.50749996 2:0.44536258 3:0.10097228 4:0.5642442 5:-0.9039725 6:0.80009249 7:0.69799799 8:0.083589763 9:-0.22792514 10:-0.45756781 11:0.19141607 12:0.20191658 13:0.10220252 14:2.8457879 15:0.23189124 
1.396269726158575 1:0.80941822 2:0.70943709 3:0.10097228 4:-0.20323932 5:-0.45037218 6:0.18439298 7:0.20269142 8:0.083589763 9:2.9459387 10:0.23862442 11:0.19141607 12:0.034618398 13:-0.59530123 14:-0.32940121 15:-0.45864142 
0.7272512130849031 1:0.55781967 2:0.31415574 3:-0.61122591 4:-0.20323932 5:-0.066955315 6:0.23570128 7:0.20774557 8:0.083589763 9:3.7076661 10:-0.41540837 11:0.62623351 12:0.75046156 13:0.10220252 14:3.9448918 15:-1.1140313 
0.889620177220391 1:0.25590142 2:0.22613091 3:0.10097228 4:3.7620922 5:-0.40853688 6:0.64616762 7:0.77717966 8:0.083589763 9:4.0885297 10:-1.1124418 11:0.38466826 12:0.50273157 13:-0.59530123 14:4.6776278 15:-1.8220008 
2.828427 1:0.40686054 2:0.32744251 3:0.10097228 4:0.052588521 5:-0.087156727 6:0.59485932 7:0.49583205 8:-0.63920952 9:-0.10097059 10:-0.73771445 11:0.77117265 12:0.76333066 13:0.10220252 14:0.036966761 15:0.2345586 
1.638503846093445 1:0.80941822 2:0.80078362 3:0.10097228 4:0.052588521 5:0.24312434 6:0.7487842 7:0.8748932 8:0.083589763 9:4.0885297 10:-0.18532198 11:0.33635522 12:0.3579543 13:0.10220252 14:0.15908942 15:-0.39492505 
0.215257331860103 1:0.75909851 2:0.88382592 3:0.10097228 4:4.1458339 5:-0.18021951 6:0.33831786 7:0.3661089 8:0.083589763 9:0.15293852 10:-0.39058739 11:1.0127379 12:1.02212 13:0.11673385 14:0.039510983 15:0.23883486 
1.248930654605492 1:-2.1594446 2:-1.8831435 3:-2.0356223 4:-1.4823785 5:-1.8259682 6:-0.32868994 7:-0.56890861 8:-0.63920952 9:-0.73574336 10:-0.38470951 11:0.19141607 12:-0.034552964 13:-0.59530123 14:-0.45152387 15:-0.45186087 
0.2425244680258558 1:0.054622582 2:-0.16582875 3:0.10097228 4:-0.45906716 5:0.34722742 6:-0.99569774 7:-1.1198108 8:-0.63920952 9:-0.98965247 10:0.062730486 11:-2.6107408 12:-2.1434752 13:-1.9903087 14:-1.7948731 15:-0.96899794 
2.828427 1:0.10494229 2:0.09160238 3:0.10097228 4:0.052588521 5:0.0033508842 6:-0.79046457 7:-0.82498548 8:0.083589763 9:-0.60878881 10:0.64720086 11:-0.62990576 12:-0.69409386 13:0.10220252 14:-0.20727856 15:0.88056782 
2.397923242409589 1:-0.75049276 2:-0.79196769 3:0.10097228 4:-0.58698108 5:0.64590246 6:-0.68784799 7:-0.73569552 8:0.083589763 9:-0.22792514 10:0.88978007 11:-0.34002747 12:-0.42062568 13:0.10220252 14:0.15908942 15:1.3653466 
2.828427 1:-0.64985334 2:-0.70394285 3:0.10097228 4:-0.20323932 5:0.8866166 6:-0.37999823 7:-0.44929376 8:0.083589763 9:0.15293852 10:1.3764116 11:-1.837732 12:-1.5289761 13:-1.292805 14:0.036966761 15:-1.103016 
2.470327840324472 1:-0.34793509 2:-0.42159903 3:0.10097228 4:0.18050244 5:1.3695066 6:-1.9705553 7:-1.6100632 8:-1.3620088 9:0.025983969 10:-1.1013845 11:-1.4995406 12:-1.3938507 13:-0.59530123 14:-0.69576919 15:0.83939975 
2.76228406874015 1:-1.9078461 2:-1.5659219 3:-1.3234241 4:0.052588521 5:-1.0892388 6:-1.6113972 7:-1.4685471 8:-0.63920952 9:-0.73574336 10:0.84845466 11:-0.14677527 12:-0.26137069 13:0.10220252 14:-0.32940121 15:0.97711503 
2.828427 1:-0.14665625 2:-0.25717528 3:0.10097228 4:-0.33115324 5:0.98278764 6:-1.0983143 7:-1.0557916 8:-0.63920952 9:-0.3548797 10:-0.7045223 11:-0.19508832 12:-0.24045841 13:0.10220252 14:-0.085155898 15:-0.1663746 
2.828427 1:-1.052411 2:-1.0195036 3:-0.61122591 4:-0.33115324 5:-0.69542795 6:-0.22607335 7:-0.26060554 8:0.083589763 9:-0.10097059 10:-0.16116348 11:-1.9343581 12:-1.6785793 13:-1.292805 14:-0.94001451 15:-0.028337281 
0.3291381382807342 1:-0.19697596 2:-0.23558428 3:0.10097228 4:-0.075325398 5:-0.15624675 6:-2.0731719 7:-1.7667419 8:-1.3620088 9:-0.98965247 10:-0.022598617 11:-0.91978405 12:-0.81956749 13:0.10220252 14:-0.81789185 15:0.64363293 
0.3440192581597712 1:-0.9517716 2:-0.83348884 3:0.10097228 4:-0.84280891 5:0.65060484 6:-0.53392311 7:-0.59080992 8:-0.63920952 9:-0.60878881 10:-0.33671036 11:-0.0018361254 12:-0.087637963 13:0.10220252 14:-0.45152387 15:0.20980513 
2.828427 1:-0.49889422 2:-0.5611101 3:-0.61122591 4:-0.58698108 5:-0.33044394 6:-0.020840185 7:-0.1005575 8:0.083589763 9:-0.48183425 10:0.21645391 11:-0.871471 12:-0.76165658 13:0.10220252 14:-0.20727856 15:0.43151874 
2.828427 1:0.004302873 2:-0.077803912 3:0.10097228 4:-0.45906716 5:0.21846732 6:-0.94438945 7:-0.8064536 8:0.083589763 9:-0.22792514 10:0.43901484 11:-0.43665356 12:-0.30962978 13:0.10220252 14:-0.45152387 15:0.42167156 
2.828427 1:-0.90145189 2:-0.77369839 3:0.10097228 4:-0.20323932 5:0.43931709 6:-0.48261482 7:-0.33304834 8:0.083589763 9:-0.48183425 10:0.42913003 11:-0.72653185 12:-0.57988068 13:0.10220252 14:-0.32940121 15:0.36967999 
1.285613320645465 1:-0.44857451 2:-0.30700066 3:0.10097228 4:-0.45906716 5:0.42950828 6:-0.79046457 7:-0.61608067 8:0.083589763 9:-0.3548797 10:0.37693976 11:-1.4512276 12:-1.3230707 13:-0.59530123 14:-0.94001451 15:-0.075646542 
2.828427 1:1.1616562 2:1.152883 3:0.10097228 4:0.18050244 5:-0.82486571 6:0.64616762 7:0.46729716 8:-0.63920952 9:-0.22528025 10:-0.946354 11:0.43298131 12:0.28878294 13:0.10220252 14:-0.085155898 15:-0.034034224 
2.828427 1:0.45718025 2:0.31083405 3:0.10097228 4:-0.075325398 5:-0.024421997 6:0.28700957 7:0.19240763 8:-0.63920952 9:0.15558341 10:-1.0870411 11:0.52960741 12:0.37725794 13:0.10220252 14:1.1360707 15:-0.022487834 
2.828427 1:0.30622113 2:0.21101029 3:-0.61122591 4:0.18316731 5:-1.0750057 6:0.54355103 7:0.38632549 8:0.083589763 9:1.168575 10:-0.016726815 11:-0.24340137 12:-0.25493614 13:0.10220252 14:1.746684 15:-0.3169004 
2.828427 1:0.55781967 2:0.40218058 3:0.10097228 4:1.2038138 5:-0.012920593 6:-0.27738165 7:-0.27576799 8:0.083589763 9:1.8033477 10:-0.31226455 11:0.094789972 12:6.6230474e-05 13:-0.59530123 14:0.89691381 15:-0.54235302 
2.828427 1:-0.24729567 2:-0.2505319 3:0.10097228 4:1.8433834 5:-0.30618608 6:0.0817764 7:-0.0087053676 8:-0.63920952 9:0.91995563 10:-0.53857878 11:0.19141607 12:-0.077986145 13:-0.59530123 14:-0.20727856 15:-0.61513894 
1.700476263240791 1:0.20558171 2:-0.067838836 3:-0.61122591 4:-0.20323932 5:-0.60326262 6:-0.79046457 7:-0.90848423 8:-0.63920952 9:-1.1139621 10:0.45591159 11:0.48129436 12:0.4264554 13:0.13126518 14:0.042055205 15:-0.69063149 
2.828427 1:-0.75049276 2:-0.87428337 3:-0.61122591 4:-1.0959719 5:0.45608392 6:0.49224274 7:0.43784973 8:0.1137064 9:0.031273742 10:-0.68742393 11:1.0610509 12:1.0602916 13:0.10220252 14:0.77479116 15:-0.88323276 
2.828427 1:0.50749996 2:0.45297479 3:0.1306472 4:0.057918268 5:-0.67846104 6:1.1079422 7:1.101663 8:0.083589763 9:0.79300107 10:-0.88076127 11:0.28804217 12:0.017560151 13:-0.59530123 14:-0.080067454 15:-0.57920195 
2.828427 1:1.1113365 2:1.1073827 3:0.10097228 4:0.82540178 5:-0.87031191 6:0.28700957 7:0.0096159214 8:-0.63920952 9:-0.095680813 10:-0.57556853 11:0.52960741 12:0.37404066 13:0.10220252 14:-0.45152387 15:0.093295357 
2.828427 1:0.30622113 2:0.030808496 3:-0.61122591 4:-0.069995651 5:-0.56746565 6:0.54355103 7:0.38295606 8:0.083589763 9:-0.48183425 10:0.099498867 11:-0.14677527 12:-0.32507939 13:-0.5807699 14:-0.20219011 15:-0.81910159 
2.828427 1:0.55781967 2:0.39885889 3:0.10097228 4:-0.45906716 5:0.10241148 6:-0.17476506 7:-0.34922864 8:-0.6241512 9:-0.22263537 10:-0.81638501 11:0.19141607 12:-0.073160236 13:-0.59530123 14:-0.57364653 15:-0.87008876 
1.231306479972551 1:-0.14665625 2:-0.3229517 3:-0.59638845 4:-0.19790957 5:-0.8064306 6:0.18439298 7:-0.085395054 8:-0.63920952 9:-0.60878881 10:-0.86756704 11:0.7228596 12:0.5928152 13:0.10220252 14:0.28121208 15:0.75575057 
2.828427 1:0.20558171 2:-0.062856298 3:-0.61122591 4:-0.58698108 5:-0.85721912 6:0.7487842 7:0.61207747 8:0.083589763 9:0.27989308 10:0.7644858 11:0.86779875 12:0.71989747 13:0.10220252 14:-0.085155898 15:-0.37923108 
-2.828427 1:0.30622113 2:0.56826518 3:0.81317046 4:0.30841636 5:0.48241817 6:-2.6375631 7:-2.0918921 8:-2.0848081 9:-0.98965247 10:-1.1028991 11:0.28804217 12:-0.042596146 13:-0.59530123 14:0.15908942 15:0.58920814 
-2.828427 1:-2.5620023 2:-2.0409239 3:-2.0356223 4:-0.97072283 5:-1.0907418 6:0.28700957 7:-0.053385446 8:-0.63920952 9:0.15293852 10:0.59730689 11:-1.837732 12:-1.6544497 13:-1.292805 14:-1.1842598 15:0.58898951 
-2.828427 1:0.30622113 2:-0.031300224 3:-0.61122591 4:0.18050244 5:0.59639211 6:-1.9705553 7:-1.7414711 8:-1.3620088 9:-1.2435616 10:0.59708742 11:-0.48496661 12:-0.54449068 13:0.10220252 14:-0.57364653 15:0.33294023 
-2.828427 1:-1.9078461 2:-1.6954679 3:-1.3234241 4:-1.2265507 5:0.59617432 6:-0.53392311 7:-0.57901691 8:0.083589763 9:-0.60878881 10:0.34005959 11:0.28804217 12:0.51077475 13:0.79970628 14:0.036966761 15:-0.25721114 
-2.828427 1:0.054622582 2:-0.026317686 3:0.10097228 4:-0.075325398 5:-0.86528676 6:0.13308469 7:0.069598839 8:0.083589763 9:0.025983969 10:-0.18853655 11:1.2059901 12:1.1847934 13:0.10220252 14:0.28121208 15:-0.73969031 
-2.828427 1:0.155262 2:0.089941534 3:0.10097228 4:0.052588521 5:-0.18340937 6:1.2618671 7:1.232053 8:0.083589763 9:0.27989308 10:-0.73667024 11:0.14310302 12:0.004054308 13:0.10220252 14:-0.45152387 15:-0.33548008 
-2.828427 1:1.2622956 2:1.2359253 3:0.10097228 4:0.30841636 5:-0.72732872 6:0.13308469 7:-0.0045286753 8:0.083589763 9:-0.48183425 10:-0.33091523 11:0.33635522 12:0.14400567 13:0.10220252 14:-0.57364653 15:-0.097708076 
-2.828427 1:0.155262 2:0.01686431 3:0.10097228 4:-0.45906716 5:-0.32469336 6:0.33831786 7:0.14204164 8:0.083589763 9:-0.60878881 10:-0.092234528 11:0.52960741 12:0.43677748 13:0.10220252 14:-0.20727856 15:0.098416405 
-2.828427 1:0.35654084 2:0.16135791 3:0.10097228 4:-0.58698108 5:-0.087847764 6:0.54355103 7:0.44865999 8:0.083589763 9:-0.22792514 10:0.10463949 11:0.48129436 12:0.53651293 13:0.10220252 14:2.2351746 15:-0.50291228 
-2.828427 1:0.55781967 2:0.46363188 3:0.10097228 4:-0.20323932 5:0.10751258 6:0.49224274 7:0.5531124 8:0.083589763 9:2.311166 10:-0.49898731 11:1.4958684 12:1.7011656 13:0.10220252 14:0.89182537 15:-0.8945388 
-2.828427 1:0.55781967 2:0.41048481 3:0.10097228 4:-0.45906716 5:0.46530183 6:-0.072148478 7:-0.13088239 8:0.083589763 9:-0.60878881 10:-1.3194821 11:-0.0018361254 12:-0.17611296 13:0.10220252 14:-0.20727856 15:0.019778705 
-2.828427 1:0.054622582 2:-0.037943608 3:0.81317046 4:-0.45906716 5:1.5788046 6:-0.020840185 7:-0.12751296 8:-0.63920952 9:-0.31256151 10:-1.1203682 11:1.2059901 12:0.99819156 13:0.10220252 14:-0.32940121 15:-0.38662328 
-2.828427 1:0.25590142 2:0.27429544 3:0.10097228 4:-0.20323932 5:0.25897254 6:-0.99569774 7:-0.88395055 8:0.083589763 9:0.53380219 10:-0.40198874 11:-2.2242364 12:-1.8115599 13:-1.292805 14:-0.14112878 15:-0.80862212 
-1.606994393151468 1:-0.9517716 2:-0.8500973 3:0.10097228 4:0.5642442 5:-0.39522043 6:-2.3810216 7:-1.9060117 8:-1.3620088 9:-0.15915809 10:-0.80586549 11:-0.62990576 12:-0.54609932 13:0.79970628 14:0.15908942 15:0.097116942 
-2.819467823795577 1:-2.3104037 2:-1.8576772 3:-1.3234241 4:-0.13395261 5:-0.79599196 6:-0.68784799 7:-0.58070163 8:0.80638905 9:0.15293852 10:0.10333506 11:-1.1613493 12:-1.1638157 13:0.10220252 14:0.28121208 15:0.84284327 
-2.828427 1:-0.64985334 2:-0.55114502 3:0.81317046 4:0.18050244 5:0.10621818 6:-1.2522392 7:-1.2276327 8:0.083589763 9:0.27989308 10:0.85191134 11:-2.4658016 12:-1.9697425 13:-1.9903087 14:-0.32940121 15:-0.55227072 
-0.3147399877141412 1:-1.2033701 2:-1.1889099 3:0.10097228 4:0.30841636 5:0.84903902 6:-2.6375631 7:-2.0716755 8:-2.0848081 9:-0.3548797 10:-0.54853438 11:0.046476923 12:0.31452112 13:2.1947138 14:0.15908942 15:3.1160842 
-1.522058758530239 1:-0.70017305 2:-0.70228201 3:1.5253686 4:-0.20323932 5:2.332726 6:-1.2009309 7:-0.89405885 8:0.083589763 9:1.5494386 10:0.38059387 11:-1.6444798 12:-1.5321934 13:1.49721 14:-0.81789185 15:1.6749122 
-1.577748495405782 1:-1.1530504 2:-0.86006238 3:0.10097228 4:1.5875556 5:0.38134528 6:-1.7653221 7:-1.6134327 8:1.5291883 9:-0.86269792 10:1.6871602 11:-0.29171442 12:-0.42706023 13:0.10220252 14:-0.81789185 15:0.7538354 
-2.828427 1:-0.29761538 2:-0.42824242 3:0.10097228 4:-0.84280891 5:0.76037795 6:0.64616762 7:0.53794995 8:0.083589763 9:0.15293852 10:-0.22375761 11:1.2059901 12:1.1831847 13:0.10220252 14:0.036966761 15:-0.041243133 
-2.828427 1:0.65845909 2:0.55165672 3:0.10097228 4:0.18050244 5:-0.21835963 6:1.2618671 7:1.2303683 8:0.083589763 9:0.025983969 10:-0.035553791 11:0.23972912 12:0.095746579 13:0.10220252 14:0.036966761 15:0.008877876 
-2.828427 1:1.2622956 2:1.2342644 3:0.10097228 4:0.052588521 5:-0.031602818 6:0.23570128 7:0.09150015 8:0.083589763 9:0.025983969 10:0.014758766 11:0.19141607 12:-0.13267978 13:-0.59530123 14:-0.57364653 15:0.28504668 
-2.828427 1:0.25590142 2:0.11153253 3:0.10097228 4:0.052588521 5:0.01832291 6:0.18439298 7:-0.14772956 8:-0.63920952 9:-0.60878881 10:0.29198301 11:0.28804217 12:0.14561431 13:0.10220252 14:-0.20727856 15:0.20104686 
-2.828427 1:0.20558171 2:-0.1243076 3:-0.61122591 4:-0.58698108 5:0.29341571 6:0.28700957 7:0.14372635 8:0.083589763 9:-0.22792514 10:0.20766216 11:-1.0164101 12:-1.1943798 13:-1.292805 14:-0.20727856 15:-1.2564591 
-2.828427 1:0.30622113 2:0.16301876 3:0.10097228 4:-0.20323932 5:0.20974316 6:-1.0983143 7:-1.2596423 8:-1.3620088 9:-0.22792514 10:-1.255414 11:1.157677 12:1.1751416 13:0.10220252 14:0.28121208 15:-0.28676922 
-2.828427 1:1.1616562 2:1.2425687 3:0.10097228 4:0.30841636 5:0.29062663 6:0.64616762 7:0.54805825 8:0.083589763 9:-0.10097059 10:-0.36449867 11:0.19141607 12:0.16491794 13:0.10220252 14:-0.45152387 15:0.2800736 
-0.9269827626107617 1:0.7087788 2:0.70279371 3:0.10097228 4:0.43633028 5:-0.17591321 6:1.6210252 7:1.8885659 8:0.82144737 9:0.53909196 10:0.42106972 11:0.14310302 12:0.095746579 13:0.10220252 14:1.2581933 15:-0.26319098 
-2.828427 1:0.155262 2:0.11153253 3:0.10097228 4:1.3317277 5:-0.25268592 6:0.80009249 7:0.67946611 8:0.083589763 9:0.27989308 10:-0.36302368 11:0.8194857 12:0.88236974 13:0.79970628 14:1.2581933 15:-0.10466538 
-2.828427 1:0.80941822 2:0.69116778 3:0.10097228 4:0.30841636 5:-0.35655495 6:0.85140079 7:0.91532639 8:0.80638905 9:1.2955295 10:-0.099218418 11:0.43298131 12:0.30165203 13:0.10220252 14:0.64758005 15:0.88359011 
-2.828427 1:0.85973792 2:0.92368622 3:0.81317046 4:1.3317277 5:-0.094777958 6:0.44093445 7:0.30714383 8:0.083589763 9:0.66075674 10:0.89281391 11:0.86779875 12:0.87382386 13:0.11673385 14:2.1181404 15:0.16586577 
-2.539467215566198 1:0.45718025 2:0.32412082 3:0.10097228 4:0.69215812 5:0.88962711 6:0.90270908 7:0.90637633 8:0.098648081 9:2.1895012 10:0.17234662 11:1.2059901 12:1.4389579 13:0.79970628 14:0.89182537 15:0.054497806 
-2.828427 1:1.2622956 2:1.3073417 3:0.81317046 4:0.30841636 5:0.47948383 6:0.64616762 7:0.66261895 8:-0.63920952 9:0.025983969 10:-1.5852867 11:0.77117265 12:0.74563566 13:0.10220252 14:0.036966761 15:-0.28646614 
-2.828427 1:0.65845909 2:0.67455932 3:-0.61122591 4:0.052588521 5:-1.5694206 6:0.80009249 7:0.77212551 8:0.083589763 9:0.025983969 10:-0.28171398 11:0.28804217 12:0.39656157 13:0.10220252 14:-0.20727856 15:0.12321744 
-0.9059220636431753 1:0.155262 2:0.031362111 3:-0.61122591 4:0.43899515 5:-1.0185742 6:1.4671003 7:1.7998024 8:0.083589763 9:0.53380219 10:-1.1370226 11:-0.050149174 12:-0.20345978 13:0.79970628 14:-0.085155898 15:0.1353667 
-2.828427 1:1.0106971 2:1.0930925 3:0.81317046 4:1.2038138 5:-0.184872 6:0.18439298 7:0.14709579 8:0.083589763 9:-0.3548797 10:0.79045693 11:-0.098462223 12:-0.31445569 13:-0.59530123 14:-0.45152387 15:-0.96957389 
-2.828427 1:-1.1530504 2:-1.144067 3:-1.3234241 4:-0.20323932 5:-1.7651415 6:0.7487842 7:0.6878897 8:-0.63920952 9:0.15293852 10:-1.2037476 11:0.77117265 12:0.66037793 13:0.10220252 14:-0.32940121 15:-0.22403201 
-2.828427 1:0.75909851 2:0.69947201 3:-0.61122591 4:0.18050244 5:-1.1908149 6:0.80009249 7:0.68283555 8:0.083589763 9:-0.3548797 10:-0.21904124 11:-0.14677527 12:-0.2308066 13:-0.59530123 14:0.89182537 15:-0.39091801 
-2.828427 1:0.80941822 2:0.69448948 3:0.10097228 4:-0.33115324 5:-0.21367952 6:-0.17476506 7:-0.25049725 8:-0.63920952 9:0.91466585 10:-0.38656503 11:0.19141607 12:0.07322567 13:0.10220252 14:0.40333474 15:0.17397714 
-2.828427 1:-0.14665625 2:-0.22561921 3:-0.61122591 4:0.94798596 5:-0.3799153 6:0.18439298 7:0.067914123 8:0.083589763 9:0.40684763 10:0.180489 11:-0.871471 12:-0.87214979 13:-0.59530123 14:0.79260071 15:-0.49863661 
-2.828427 1:0.20558171 2:0.088280688 3:0.10097228 4:0.43633028 5:0.18277892 6:-0.94438945 7:-0.92217255 8:-0.63920952 9:0.81151528 10:-0.4946953 11:0.14310302 12:-0.17611296 13:-0.59530123 14:-0.45152387 15:0.093149645 
-0.08613486420594073 1:-0.90145189 2:-0.88777774 3:-0.61122591 4:0.8440559 5:-0.48721421 6:0.13308469 7:-0.19321689 8:-0.63920952 9:-0.48183425 10:0.099352598 11:-0.53327966 12:-0.039378873 13:2.8922175 14:0.036966761 15:7.9377102 
-0.0900168409518228 1:-0.54921392 2:-0.027978532 3:2.949765 4:0.052588521 5:7.9162631 6:1.2618671 7:1.3028111 8:0.80638905 9:0.66075674 10:-0.092883673 11:-1.7894189 12:-1.6013647 13:0.79970628 14:-0.32940121 15:1.2532246 
-0.1471208271370296 1:0.25590142 2:0.098245764 3:0.10097228 4:0.052588521 5:0.073832556 6:1.056634 7:0.99282333 8:0.80638905 9:0.27989308 10:0.73860316 11:0.62623351 12:0.58155475 13:0.10220252 14:0.036966761 15:-0.7948266 
-2.828427 1:0.65845909 2:0.61310802 3:0.10097228 4:0.052588521 5:-0.78225019 6:-0.020840185 7:-0.22017235 8:0.083589763 9:-0.48183425 10:1.1141946 11:0.86779875 12:0.76815656 13:0.10220252 14:0.15908942 15:0.35130006 
-2.828427 1:0.004302873 2:-0.19572398 3:0.10097228 4:-0.45906716 5:1.1093057 6:0.90270908 7:0.79571153 8:0.083589763 9:0.15293852 10:0.3584896 11:-1.1130362 12:-1.1847279 13:-1.292805 14:-0.81789185 15:-0.63669053 
-0.2744118387100567 1:0.91005763 2:0.80576616 3:0.10097228 4:0.18050244 5:0.35941096 6:-1.2009309 7:-1.249534 8:-1.3620088 9:-0.86269792 10:-0.63327682 11:1.0610509 12:1.1831847 13:0.79970628 14:0.52545739 15:0.20156617 
-1.415677628610504 1:-1.1530504 2:-1.2105009 3:-1.3234241 4:-0.84280891 5:-0.62473024 6:1.1079422 7:1.2303683 8:0.80638905 9:0.53380219 10:0.20818347 11:-2.5141147 12:-2.082347 13:-2.6878125 14:-1.1842598 15:-2.4369476 
-2.828427 1:-1.052411 2:-1.2686305 3:-1.3234241 4:-0.45906716 5:0.12244926 6:-0.22607335 7:-0.11571995 8:-0.63920952 9:-0.22792514 10:-1.955797 11:-1.2096623 12:-1.0544284 13:0.10220252 14:-0.085155898 15:-0.33938964 
-2.828427 1:-0.19697596 2:-0.092751526 3:-0.61122591 4:-0.20323932 5:-1.9370822 6:-1.3035475 7:-1.113072 8:0.083589763 9:-0.10097059 10:-0.33483973 11:-0.098462223 12:-0.087637963 13:0.10220252 14:-0.69576919 15:0.084671071 
-2.828427 1:-1.2536898 2:-1.0759724 3:0.10097228 4:-0.075325398 5:-0.32858769 6:-0.12345677 7:-0.1005575 8:0.083589763 9:-0.73574336 10:0.090841621 11:-0.19508832 12:-0.22437205 13:0.10220252 14:-0.45152387 15:-0.69544773 
-2.828427 1:-0.096336545 2:-0.077803912 3:0.10097228 4:-0.71489499 5:0.093820801 6:-0.22607335 7:-0.24375838 8:0.083589763 9:-0.48183425 10:-0.69225857 11:0.96442485 12:0.98371383 13:0.10220252 14:0.64758005 15:-0.4929673 
-2.828427 1:-0.19697596 2:-0.21897582 3:0.10097228 4:-0.45906716 5:-0.68325851 6:1.0053257 7:1.0214635 8:0.083589763 9:0.66075674 10:-0.48900432 11:-0.91978405 12:-1.020647 13:-0.59530123 14:-0.32940121 15:-0.75630634 
-1.249454942697942 1:1.0106971 2:1.0283195 3:0.10097228 4:0.69215812 5:-0.48156698 6:-0.99569774 7:-1.0776929 8:-0.63920952 9:-0.3548797 10:-0.75334977 11:-0.91978405 12:-0.78417749 13:0.79970628 14:-0.085155898 15:2.8619765 
-1.240161639891003 1:-0.9517716 2:-1.0410946 3:-0.61122591 4:-0.33115324 5:-0.74388001 6:-0.99569774 7:-0.83003963 8:0.80638905 9:-0.10097059 10:2.8787611 11:0.8194857 12:0.80676384 13:0.79970628 14:0.28121208 15:0.09549019 
-1.337730293326261 1:-0.90145189 2:-0.73051639 3:-0.61122591 4:-0.20323932 5:-1.1885914 6:0.38962615 7:0.22290802 8:-0.63920952 9:-0.22792514 10:-0.97690713 11:-0.24340137 12:-0.48175386 13:0.79970628 14:0.036966761 15:-0.5751884 
-2.828427 1:0.40686054 2:0.24107852 3:-0.61122591 4:-0.20323932 5:-0.96571854 6:-0.27738165 7:-0.51331298 8:0.80638905 9:0.025983969 10:-0.57153965 11:-0.050149174 12:-0.25976205 13:-0.59530123 14:-0.32940121 15:-0.63165587 
-2.828427 1:-0.24729567 2:-0.48471118 3:0.81317046 4:0.052588521 5:-0.56346774 6:-0.072148478 7:-0.28082214 8:-0.63920952 9:-0.3548797 10:-0.62822292 11:0.33635522 12:0.12470203 13:0.10220252 14:-0.20727856 15:-0.42356498 
-2.828427 1:-0.046016836 2:-0.25551443 3:-0.61122591 4:-0.33115324 5:-0.6197152 6:0.33831786 7:0.12182504 8:0.083589763 9:-0.22792514 10:-0.41933676 11:0.7228596 12:0.65876929 13:0.79970628 14:0.28121208 15:0.76327206 
-1.402960471698147 1:0.35654084 2:0.14142776 3:0.10097228 4:-0.20323932 5:-0.41243507 6:0.7487842 7:0.68115083 8:0.80638905 9:0.27989308 10:0.77203604 11:-0.29171442 12:-0.56701159 13:0.10220252 14:-0.32940121 15:0.80794235 
-2.645401867895334 1:-0.29761538 2:-0.57273602 3:0.10097228 4:-0.33115324 5:0.81427409 6:0.7487842 7:0.75359363 8:0.80638905 9:0.53380219 10:0.31619246 11:0.62623351 12:0.54777339 13:0.10220252 14:0.28121208 15:-0.70470323 
-2.378494408258867 1:0.65845909 2:0.57823026 3:0.10097228 4:0.30841636 5:-0.69247796 6:0.38962615 7:0.39474907 8:0.80638905 9:1.9303023 10:0.49645894 11:1.3509292 12:1.3681779 13:0.10220252 14:0.64758005 15:-0.7086027 
-2.828427 1:0.30622113 2:0.25602613 3:0.10097228 4:-0.33115324 5:1.0405775 6:0.18439298 7:-0.095503352 8:0.083589763 9:-0.22792514 10:0.30190901 11:0.14310302 12:-0.048527992 13:-0.59530123 14:-0.21491122 15:0.54539047 
-2.828427 1:0.20558171 2:-0.072821374 3:0.10097228 4:-0.20323932 5:0.30326539 6:0.13308469 7:-0.059597837 8:-0.63920952 9:-0.2358598 10:0.55332176 11:-1.0647232 12:-1.1943798 13:-1.292805 14:-0.57364653 15:-0.86128357 
-2.828427 1:0.155262 2:-0.037424594 3:-0.61122591 4:-0.21123394 5:0.55274515 6:-1.1496226 7:-1.2596423 8:-1.3620088 9:-0.60878881 10:-0.8587282 11:0.43298131 12:0.2694793 13:0.10220252 14:-0.20727856 15:-0.31607445 
-2.828427 1:-1.1027307 2:-1.220466 3:-1.3234241 4:-0.58698108 5:-0.84844824 6:0.44093445 7:0.2734495 8:0.083589763 9:-0.22792514 10:-0.31143544 11:-1.4995406 12:-1.1573811 13:-0.59530123 14:0.40333474 15:-1.3234364 
-2.828427 1:-0.80081247 2:-0.41495565 3:0.81317046 4:0.94798596 5:-0.11618667 6:0.54355103 7:0.37790191 8:-0.63920952 9:0.27989308 10:-0.17537673 11:0.19141607 12:0.018532035 13:-0.59530123 14:-0.32940121 15:-0.16821786 
-2.828427 1:0.55781967 2:0.39387635 3:-0.61122591 4:0.30841636 5:-0.17035073 6:0.18439298 7:0.010633771 8:-0.63920952 9:-0.3548797 10:-0.16301378 11:0.52960741 12:0.35956294 13:0.10220252 14:0.15908942 15:-0.012958597 
-2.828427 1:0.20558171 2:0.031811924 3:-0.61122591 4:-0.33115324 5:-0.15808283 6:0.54355103 7:0.36779361 8:0.083589763 9:0.15293852 10:-0.0071611601 11:0.7228596 12:0.61855339 13:0.10220252 14:-0.085155898 15:0.10857838 
-2.828427 1:0.55781967 2:0.38391128 3:0.10097228 4:0.18050244 5:-0.0034284843 6:0.7487842 7:0.63903293 8:0.083589763 9:-0.10097059 10:0.1148403 11:0.52960741 12:0.39495294 13:0.10220252 14:-0.085155898 15:0.11474341 
-2.828427 1:0.75909851 2:0.65130748 3:0.10097228 4:-0.075325398 5:0.11763497 6:0.54355103 7:0.40485737 8:0.083589763 9:-0.10097059 10:0.12102889 11:0.23972912 12:0.15204885 13:0.10220252 14:0.28121208 15:-0.8317213 
-2.828427 1:1.1616562 2:1.0333021 3:0.10097228 4:0.30841636 5:-0.95221439 6:0.49224274 7:0.17236653 8:-0.63920952 9:1.0416204 10:-1.0253751 11:0.43298131 12:0.34991112 13:0.79970628 14:-0.32940121 15:0.70843359 
-2.828427 1:0.50749996 2:0.19125314 3:-0.61122591 4:1.0758999 5:-1.0138139 6:0.44093445 7:0.35768531 8:0.80638905 9:-0.3548797 10:0.71698799 11:-0.24340137 12:-0.17289569 13:0.79970628 14:-0.32940121 15:2.0273209 
-2.828427 1:1.3126153 2:1.5066432 3:0.81317046 4:0.43633028 5:-0.33363414 6:0.0817764 7:-0.15109899 8:-0.63920952 9:0.40684763 10:-1.2230216 11:0.33635522 12:0.29360885 13:0.10220252 14:0.036966761 15:-0.47603271 
-2.828427 1:0.10494229 2:-0.12762929 3:-0.61122591 4:0.43633028 5:-1.2099407 6:0.33831786 7:0.29872025 8:0.083589763 9:0.025983969 10:-0.47200501 11:-0.0018361254 12:-0.11981069 13:0.10220252 14:0.15908942 15:-0.15356436 
